<?xml version="1.0"?>
<opencv_storage>
<stage7>
  <maxWeakCount>18</maxWeakCount>
  <stageThreshold>-1.5525754690170288e+00</stageThreshold>
  <weakClassifiers>
    <_>
      <internalNodes>
        0 -1 5065 -2097233 -318770185 1944797143 -51972417 -241566867
        -857812770 -3412365 -705691969</internalNodes>
      <leafValues>
        -5.3516328334808350e-01 2.9472811147570610e-02</leafValues></_>
    <_>
      <internalNodes>
        0 -1 139616 1288849991 -360748841 -288828715 -285778161
        1114587653 -839951236 -204487090 2130638587</internalNodes>
      <leafValues>
        -4.3414881825447083e-01 1.8741719424724579e-01</leafValues></_>
    <_>
      <internalNodes>
        0 -1 121185 -1970328797 -1363249201 -1105955407 -1900106308
        -627098027 -667196481 -69478875 1003260976</internalNodes>
      <leafValues>
        -5.6827080249786377e-01 1.4846152067184448e-01</leafValues></_>
    <_>
      <internalNodes>
        0 -1 154259 2085618737 -44196291 -1136329353 -928451586 -8131203
        -89158419 -2359890 -2004876796</internalNodes>
      <leafValues>
        -3.5419401526451111e-01 2.6775822043418884e-01</leafValues></_>
    <_>
      <internalNodes>
        0 -1 83979 -83918881 229085067 2050957872 1006054577 -1380721572
        470948880 -138467845 -537960589</internalNodes>
      <leafValues>
        -2.8861525654792786e-01 3.2696899771690369e-01</leafValues></_>
    <_>
      <internalNodes>
        0 -1 112800 -254767572 -1853882304 -1168930489 1060570372
        -1605332563 -1441389959 -1877606213 929530944</internalNodes>
      <leafValues>
        -4.7920349240303040e-01 1.9743895530700684e-01</leafValues></_>
    <_>
      <internalNodes>
        0 -1 39534 -81135951 -37939419 2134846655 1429546783 -1257134916
        -380043 -989524289 -1649464646</internalNodes>
      <leafValues>
        -2.6191046833992004e-01 3.4809321165084839e-01</leafValues></_>
    <_>
      <internalNodes>
        0 -1 106910 -1207427596 -1668004652 1640682909 401566164
        -2022124356 -1153415685 443072217 783948057</internalNodes>
      <leafValues>
        -4.1681802272796631e-01 2.2642436623573303e-01</leafValues></_>
    <_>
      <internalNodes>
        0 -1 106154 -1060175940 -804470529 -1190558964 18816674
        -128715816 -1967873350 -1166601176 -1170393541</internalNodes>
      <leafValues>
        -3.3791273832321167e-01 2.6841771602630615e-01</leafValues></_>
    <_>
      <internalNodes>
        0 -1 139838 -1158221826 -546799756 -47033892 2112908140
        671909548 -1474763296 687279550 956035050</internalNodes>
      <leafValues>
        -3.7726369500160217e-01 2.5279188156127930e-01</leafValues></_>
    <_>
      <internalNodes>
        0 -1 164881 -650656009 1154416342 1253572470 1182197350
        379543063 -59318806 1759506418 -831464449</internalNodes>
      <leafValues>
        -2.9843345284461975e-01 3.3713898062705994e-01</leafValues></_>
    <_>
      <internalNodes>
        0 -1 166056 1381601994 -14716647 352700921 1561682427 -891976743
        -1700222679 17475663 119604426</internalNodes>
      <leafValues>
        -3.6005809903144836e-01 2.7867645025253296e-01</leafValues></_>
    <_>
      <internalNodes>
        0 -1 117333 -1614026769 778032343 -1071450390 214889166
        -370344123 -1356924791 -277086239 -278924076</internalNodes>
      <leafValues>
        -3.3072549104690552e-01 3.0925053358078003e-01</leafValues></_>
    <_>
      <internalNodes>
        0 -1 71846 -67048008 1096197910 -220098798 1898273827
        -1930693461 -704914157 273776441 141941786</internalNodes>
      <leafValues>
        -4.7905874252319336e-01 2.0028267800807953e-01</leafValues></_>
    <_>
      <internalNodes>
        0 -1 158781 -1278738509 -2031688194 -671169900 1164962656
        -268781615 -1929491522 1302171841 -1042830873</internalNodes>
      <leafValues>
        -2.7612027525901794e-01 3.5113519430160522e-01</leafValues></_>
    <_>
      <internalNodes>
        0 -1 0 -116993602 1506386307 1757483079 -1962206009 -569509670
        -216121054 -834949634 1597710839</internalNodes>
      <leafValues>
        -3.3034190535545349e-01 3.0359533429145813e-01</leafValues></_>
    <_>
      <internalNodes>
        0 -1 67376 -201670119 2042865175 -1736687567 1907291350
        1298045102 -270283375 -1439569697 -88355135</internalNodes>
      <leafValues>
        -2.3547713458538055e-01 4.3544143438339233e-01</leafValues></_>
    <_>
      <internalNodes>
        0 -1 124296 -598388622 1440045948 -2086510340 -646093841
        1258040176 2116270899 -446526102 -274401298</internalNodes>
      <leafValues>
        -3.3488717675209045e-01 3.1443426012992859e-01</leafValues></_></weakClassifiers></stage7>
</opencv_storage>
