<?xml version="1.0"?>
<opencv_storage>
<stage10>
  <maxWeakCount>19</maxWeakCount>
  <stageThreshold>-1.4727163314819336e+00</stageThreshold>
  <weakClassifiers>
    <_>
      <internalNodes>
        0 -1 1984 -419698753 -304897109 -195046481 -539778305 1171355411
        -1081806021 -731552813 -5020937</internalNodes>
      <leafValues>
        -5.3836506605148315e-01 -9.5529230311512947e-03</leafValues></_>
    <_>
      <internalNodes>
        0 -1 113571 -743440429 -1905530219 281531716 1325265117
        -1168180720 -826344921 -540307024 1607455220</internalNodes>
      <leafValues>
        -3.8946780562400818e-01 1.9726566970348358e-01</leafValues></_>
    <_>
      <internalNodes>
        0 -1 59358 -1309214211 -55541794 1971570451 -1912620435
        -69144592 -1062186508 -108306569 -277120421</internalNodes>
      <leafValues>
        -2.7765893936157227e-01 2.8911086916923523e-01</leafValues></_>
    <_>
      <internalNodes>
        0 -1 130271 1790240424 957530670 -1937306837 401745508 81923326
        779283150 1107954909 993739960</internalNodes>
      <leafValues>
        -4.0985515713691711e-01 1.9138143956661224e-01</leafValues></_>
    <_>
      <internalNodes>
        0 -1 150207 -1055243 -1263596224 -1073824013 229182705 -8399707
        -230707979 -572567555 -1459683131</internalNodes>
      <leafValues>
        -2.6569902896881104e-01 3.1763169169425964e-01</leafValues></_>
    <_>
      <internalNodes>
        0 -1 122047 -1733239056 -105753440 2147450847 -584094467
        -122380871 -1380524042 -1187774465 -1363473329</internalNodes>
      <leafValues>
        -2.3807707428932190e-01 3.5787498950958252e-01</leafValues></_>
    <_>
      <internalNodes>
        0 -1 25704 1375845336 -108153130 -1627022859 387514746
        2075048937 -1226275704 -920142897 323289757</internalNodes>
      <leafValues>
        -3.9753097295761108e-01 2.2626166045665741e-01</leafValues></_>
    <_>
      <internalNodes>
        0 -1 121347 -1360124112 786101727 -711991427 -50529443
        -270812297 -608681022 -372260875 -1412767748</internalNodes>
      <leafValues>
        -3.6443188786506653e-01 2.4862249195575714e-01</leafValues></_>
    <_>
      <internalNodes>
        0 -1 106904 -1906831563 -78565224 1531032013 -572696615
        -1651704396 -279314370 895808414 999948776</internalNodes>
      <leafValues>
        -3.6431300640106201e-01 2.5124710798263550e-01</leafValues></_>
    <_>
      <internalNodes>
        0 -1 164964 -1896876065 -813695517 1828179940 -261034637
        -1787444155 -1091184809 1039127379 -177735721</internalNodes>
      <leafValues>
        -2.1725805103778839e-01 4.0120944380760193e-01</leafValues></_>
    <_>
      <internalNodes>
        0 -1 380 1256716990 -1477243102 -28891689 -891254015 1665580692
        -388020192 1785194033 2063824675</internalNodes>
      <leafValues>
        -4.1162666678428650e-01 2.1396532654762268e-01</leafValues></_>
    <_>
      <internalNodes>
        0 -1 130946 -631339380 1079510330 -50393474 1421514522
        1480421039 1148177531 -597826646 1223351208</internalNodes>
      <leafValues>
        -5.5036461353302002e-01 1.4335872232913971e-01</leafValues></_>
    <_>
      <internalNodes>
        0 -1 120953 1340046431 1362561226 440403986 -355029314
        1395078997 1797023760 1382423306 -91558149</internalNodes>
      <leafValues>
        -3.1760966777801514e-01 2.8006199002265930e-01</leafValues></_>
    <_>
      <internalNodes>
        0 -1 83346 -2039480421 1820311211 1202919984 -585917560
        329658283 -1979466048 1789242367 -1618347</internalNodes>
      <leafValues>
        -2.7220445871353149e-01 3.4696763753890991e-01</leafValues></_>
    <_>
      <internalNodes>
        0 -1 6512 1940568750 -604273268 2100647447 -584218264
        -1228934989 -954717791 -952430689 1471348762</internalNodes>
      <leafValues>
        -2.9890710115432739e-01 3.0645698308944702e-01</leafValues></_>
    <_>
      <internalNodes>
        0 -1 127732 -1057528351 1970642743 -282898196 1437644251
        -1929062252 -856112656 -863192918 -1904150086</internalNodes>
      <leafValues>
        -3.1486195325851440e-01 3.0517104268074036e-01</leafValues></_>
    <_>
      <internalNodes>
        0 -1 8670 -915556573 -202392014 1430642558 1407694839 -17058062
        -2057874924 1979316442 -603980865</internalNodes>
      <leafValues>
        -2.1589131653308868e-01 4.1910585761070251e-01</leafValues></_>
    <_>
      <internalNodes>
        0 -1 124800 -1363399916 -2041847317 1491099133 -323203380
        -228881564 -1124267087 -11937824 2129718364</internalNodes>
      <leafValues>
        -5.9323763847351074e-01 1.6399398446083069e-01</leafValues></_>
    <_>
      <internalNodes>
        0 -1 69001 -558516960 456189366 -1392812675 -8934933 84236665
        -111677824 917858356 2138505884</internalNodes>
      <leafValues>
        -4.7345337271690369e-01 1.8495674431324005e-01</leafValues></_></weakClassifiers></stage10>
</opencv_storage>
