<?xml version="1.0"?>
<opencv_storage>
<stage15>
  <maxWeakCount>24</maxWeakCount>
  <stageThreshold>-1.6106275320053101e+00</stageThreshold>
  <weakClassifiers>
    <_>
      <internalNodes>
        0 -1 124256 -142607361 -328272945 -139986447 -422781169
        -43050189 -571102439 -3866860 -4268801</internalNodes>
      <leafValues>
        -5.2264881134033203e-01 -1.0900282301008701e-02</leafValues></_>
    <_>
      <internalNodes>
        0 -1 42153 -2100418861 -1473320998 -807941129 -364730396
        -1231213707 -868746026 -1407176971 2129022144</internalNodes>
      <leafValues>
        -4.3990379571914673e-01 1.4491333067417145e-01</leafValues></_>
    <_>
      <internalNodes>
        0 -1 18783 -33587809 -1078168181 -1157711690 540327528
        -568445108 -143179978 492975295 -176689097</internalNodes>
      <leafValues>
        -2.5983011722564697e-01 2.7741414308547974e-01</leafValues></_>
    <_>
      <internalNodes>
        0 -1 40784 800525332 1393289140 292618898 -14296 218167664
        1333013184 124895412 64995272</internalNodes>
      <leafValues>
        -4.4980776309967041e-01 1.9419610500335693e-01</leafValues></_>
    <_>
      <internalNodes>
        0 -1 91726 -745735684 -1919614887 -963212460 -945831600
        -350346186 -866516892 -378914458 -1343260806</internalNodes>
      <leafValues>
        -3.6936408281326294e-01 1.7893889546394348e-01</leafValues></_>
    <_>
      <internalNodes>
        0 -1 247 -2045661510 -602268067 -2003779062 429305395 -77779779
        1180792160 -1631614791 21037072</internalNodes>
      <leafValues>
        -4.4979360699653625e-01 1.7117710411548615e-01</leafValues></_>
    <_>
      <internalNodes>
        0 -1 117757 -524629004 -795714561 1371953019 -1146963553
        -616042408 -68689729 -106364966 -1531269486</internalNodes>
      <leafValues>
        -2.5646400451660156e-01 2.8011414408683777e-01</leafValues></_>
    <_>
      <internalNodes>
        0 -1 151519 115244116 173309243 639596093 754602783 1662327840
        -21046679 -19935440 989789758</internalNodes>
      <leafValues>
        -4.8248049616813660e-01 1.4222320914268494e-01</leafValues></_>
    <_>
      <internalNodes>
        0 -1 2595 1064561823 75451619 1593819098 -1707743570 1936059451
        2145910647 -1466695995 -46662023</internalNodes>
      <leafValues>
        -2.1032309532165527e-01 3.4828385710716248e-01</leafValues></_>
    <_>
      <internalNodes>
        0 -1 13088 -163424097 -153003907 -1718496201 -846408081
        -1525892097 -85284145 -13915425 187959900</internalNodes>
      <leafValues>
        -2.7585920691490173e-01 2.8231543302536011e-01</leafValues></_>
    <_>
      <internalNodes>
        0 -1 104487 -975737425 1712794728 269809792 -731667581
        1627523634 1199457861 2076593440 -1074807208</internalNodes>
      <leafValues>
        -2.9114121198654175e-01 2.6406672596931458e-01</leafValues></_>
    <_>
      <internalNodes>
        0 -1 157910 -919639002 86808597 -732327847 -1811933179
        -1859290853 -804416305 -263370373 -1730908005</internalNodes>
      <leafValues>
        -3.2881832122802734e-01 2.3912477493286133e-01</leafValues></_>
    <_>
      <internalNodes>
        0 -1 138982 -1804155388 868748183 -2047221861 -1242053450
        1888945867 -1082677526 -1907929556 802911308</internalNodes>
      <leafValues>
        -3.4491735696792603e-01 2.3487508296966553e-01</leafValues></_>
    <_>
      <internalNodes>
        0 -1 107713 -1729059602 1343483716 -451314576 -1759019004
        -2142906385 -1373932338 659001082 -1622687637</internalNodes>
      <leafValues>
        -2.9233369231224060e-01 2.8292065858840942e-01</leafValues></_>
    <_>
      <internalNodes>
        0 -1 111090 -1409135152 -40185160 -2055047915 -1076948293
        -1725772880 -20188471 -1609632325 -1459399219</internalNodes>
      <leafValues>
        -2.9534795880317688e-01 2.6452267169952393e-01</leafValues></_>
    <_>
      <internalNodes>
        0 -1 124584 -1501414911 684163346 -1156986803 41557916 -97047710
        -1182029287 -7393740 1324006245</internalNodes>
      <leafValues>
        -6.2156939506530762e-01 1.3642610609531403e-01</leafValues></_>
    <_>
      <internalNodes>
        0 -1 79506 -634329166 -767155439 -1986900942 -1219394512
        1613787573 -193112475 1045721343 2134596707</internalNodes>
      <leafValues>
        -3.6070993542671204e-01 2.0889090001583099e-01</leafValues></_>
    <_>
      <internalNodes>
        0 -1 95793 -67964208 -788854902 -72911233 -1855960576 540329872
        1354464387 -1436233927 -609296929</internalNodes>
      <leafValues>
        -2.3103967308998108e-01 3.5237801074981689e-01</leafValues></_>
    <_>
      <internalNodes>
        0 -1 66896 -1983322162 -2000893902 423988476 -833809605
        -785658401 202965604 1989663331 575637191</internalNodes>
      <leafValues>
        -4.2554116249084473e-01 1.9509735703468323e-01</leafValues></_>
    <_>
      <internalNodes>
        0 -1 66972 456872582 1362813811 -1298583543 355624539 1214797696
        -111391664 745917096 -1332027768</internalNodes>
      <leafValues>
        -3.4124279022216797e-01 2.4182300269603729e-01</leafValues></_>
    <_>
      <internalNodes>
        0 -1 63706 -386489856 1913689744 -112666878 -16800116 1812281659
        993723032 1168499841 1740855814</internalNodes>
      <leafValues>
        -4.8910862207412720e-01 1.6313181817531586e-01</leafValues></_>
    <_>
      <internalNodes>
        0 -1 83608 19398330 -958157271 -652066898 -280024636 108068537
        -362108410 -2076992515 -35788332</internalNodes>
      <leafValues>
        -2.6970466971397400e-01 3.1023210287094116e-01</leafValues></_>
    <_>
      <internalNodes>
        0 -1 133462 10626122 273863142 738724411 827731287 750022316
        670230679 -1508196918 2062634744</internalNodes>
      <leafValues>
        -5.3937715291976929e-01 1.5769466757774353e-01</leafValues></_>
    <_>
      <internalNodes>
        0 -1 72123 -1731722224 -113243855 194838865 1036522430
        -105339969 -1076422965 -846165774 144850699</internalNodes>
      <leafValues>
        -4.1165626049041748e-01 2.0388992130756378e-01</leafValues></_></weakClassifiers></stage15>
</opencv_storage>
