<?xml version="1.0"?>
<opencv_storage>
<stage0>
  <maxWeakCount>9</maxWeakCount>
  <stageThreshold>-1.6465330123901367e+00</stageThreshold>
  <weakClassifiers>
    <_>
      <internalNodes>
        0 -1 60489 -262407253 -786967805 -241969733 1903942667
        -667287921 -59772925 -395322709 -803483637</internalNodes>
      <leafValues>
        -6.4853227138519287e-01 3.1179040670394897e-01</leafValues></_>
    <_>
      <internalNodes>
        0 -1 132527 -1000342850 202156170 -129981185 234694795
        -894719298 149074314 -489706850 49261243</internalNodes>
      <leafValues>
        -6.4217406511306763e-01 3.4521093964576721e-01</leafValues></_>
    <_>
      <internalNodes>
        0 -1 105472 -386471388 -862018034 -127860844 -256069948
        -26772704 -320947544 -185598448 -524294</internalNodes>
      <leafValues>
        -6.3079881668090820e-01 3.6342027783393860e-01</leafValues></_>
    <_>
      <internalNodes>
        0 -1 22632 -749211134 -746076282 1574537810 -11032432 1141305584
        355843074 877109434 923246767</internalNodes>
      <leafValues>
        -5.5702608823776245e-01 3.1431755423545837e-01</leafValues></_>
    <_>
      <internalNodes>
        0 -1 124657 -2030164204 -1426147977 2107626367 -285826069
        -369099531 -9454625 -369099059 -17105896</internalNodes>
      <leafValues>
        -5.0122153759002686e-01 3.5695338249206543e-01</leafValues></_>
    <_>
      <internalNodes>
        0 -1 64464 -136446733 -51343755 253835065 8070623 -740322347
        -525298652 -1145817309 106640863</internalNodes>
      <leafValues>
        -5.5879497528076172e-01 3.2704964280128479e-01</leafValues></_>
    <_>
      <internalNodes>
        0 -1 67003 -53018832 1090349585 1040225591 98007348 -196414724
        -587458284 134379355 148716042</internalNodes>
      <leafValues>
        -6.4984035491943359e-01 2.3007470369338989e-01</leafValues></_>
    <_>
      <internalNodes>
        0 -1 58689 -169447981 94888891 1056387888 -1611289749 1071946972
        80029864 -524336 -4597</internalNodes>
      <leafValues>
        -3.5222145915031433e-01 4.9345871806144714e-01</leafValues></_>
    <_>
      <internalNodes>
        0 -1 130480 16140266 353374801 294453919 835901754 77400975
        400687838 -20345203 2079000250</internalNodes>
      <leafValues>
        -5.5545818805694580e-01 3.1887775659561157e-01</leafValues></_></weakClassifiers></stage0>
</opencv_storage>
