<?xml version="1.0"?>
<opencv_storage>
<stage3>
  <maxWeakCount>14</maxWeakCount>
  <stageThreshold>-1.4712378978729248e+00</stageThreshold>
  <weakClassifiers>
    <_>
      <internalNodes>
        0 -1 136802 -1644957746 1375713245 -1081720914 1438383615
        1541358575 1358905048 -7344146 2078276575</internalNodes>
      <leafValues>
        -6.4596432447433472e-01 -9.0563837438821793e-03</leafValues></_>
    <_>
      <internalNodes>
        0 -1 56564 -571088976 -716046555 1764964883 1440053111
        -677727832 -677886144 -896782422 13368251</internalNodes>
      <leafValues>
        -5.1964324712753296e-01 2.0888058841228485e-01</leafValues></_>
    <_>
      <internalNodes>
        0 -1 121266 -1343344835 -1360091681 -614779937 -1359036993
        -9489611 -285999681 -68436107 -66883</internalNodes>
      <leafValues>
        -4.0636095404624939e-01 2.9576805233955383e-01</leafValues></_>
    <_>
      <internalNodes>
        0 -1 46643 1566044932 833074441 1131928852 -1078987206
        1960063388 833695996 1941795224 1071626410</internalNodes>
      <leafValues>
        -4.3229272961616516e-01 3.0329844355583191e-01</leafValues></_>
    <_>
      <internalNodes>
        0 -1 119939 1586390394 71340584 -1111509089 1141983227
        -1061446518 -2132744016 -5510225 1358686447</internalNodes>
      <leafValues>
        -5.0876480340957642e-01 2.2521768510341644e-01</leafValues></_>
    <_>
      <internalNodes>
        0 -1 57 -1447566365 -920526917 -33556011 -138251 -1057755153
        804773885 -974018671 -246192847</internalNodes>
      <leafValues>
        -3.4515377879142761e-01 3.5638120770454407e-01</leafValues></_>
    <_>
      <internalNodes>
        0 -1 102089 -549605417 -1879623041 260571416 49495675 -570468011
        -8423951 -1630074831 -67118209</internalNodes>
      <leafValues>
        -3.1328907608985901e-01 3.7605011463165283e-01</leafValues></_>
    <_>
      <internalNodes>
        0 -1 122207 146030704 1062496117 1538629629 1067068932
        -2036310787 -1086708683 717240748 798625012</internalNodes>
      <leafValues>
        -5.3531503677368164e-01 2.1511870622634888e-01</leafValues></_>
    <_>
      <internalNodes>
        0 -1 117675 -1908797605 -1896024866 -596593505 -1940349092
        -612948105 -336997 -2150431 1277755380</internalNodes>
      <leafValues>
        -6.0490185022354126e-01 1.9400615990161896e-01</leafValues></_>
    <_>
      <internalNodes>
        0 -1 35995 -211747469 -1865229884 194902289 328194132
        -1868322123 -2141011294 -1955218927 -809544631</internalNodes>
      <leafValues>
        -3.6001905798912048e-01 3.3575400710105896e-01</leafValues></_>
    <_>
      <internalNodes>
        0 -1 117098 1522495319 2009399817 -1563942722 2130147327
        400978714 2003322949 -1606107158 -1911630081</internalNodes>
      <leafValues>
        -3.5500466823577881e-01 3.5416260361671448e-01</leafValues></_>
    <_>
      <internalNodes>
        0 -1 84499 -327092908 1018975744 -922183304 120727042 1610879296
        367280644 -1452011848 1064781655</internalNodes>
      <leafValues>
        -5.6124472618103027e-01 2.0885583758354187e-01</leafValues></_>
    <_>
      <internalNodes>
        0 -1 100149 -212611424 528944643 -74199023 1574282248 1079485631
        -2083321121 -995890037 -819851094</internalNodes>
      <leafValues>
        -3.6416679620742798e-01 3.2548120617866516e-01</leafValues></_>
    <_>
      <internalNodes>
        0 -1 136379 1155844192 1966329909 -1531555941 311446867
        -925693968 710873559 -2009673989 184124927</internalNodes>
      <leafValues>
        -4.9839490652084351e-01 2.4569210410118103e-01</leafValues></_></weakClassifiers></stage3>
</opencv_storage>
