<?xml version="1.0"?>
<opencv_storage>
<stage18>
  <maxWeakCount>21</maxWeakCount>
  <stageThreshold>-1.6115448474884033e+00</stageThreshold>
  <weakClassifiers>
    <_>
      <internalNodes>
        0 -1 106915 -91032327 -137359222 -1719009571 -603175843
        -1127286599 -343840293 -611590150 -1348823409</internalNodes>
      <leafValues>
        -4.7705951333045959e-01 1.2817175686359406e-01</leafValues></_>
    <_>
      <internalNodes>
        0 -1 131184 -1517215215 -1571092727 621332447 774414557
        -576358092 -1106646229 -338914443 -1374120888</internalNodes>
      <leafValues>
        -3.5750687122344971e-01 1.8905140459537506e-01</leafValues></_>
    <_>
      <internalNodes>
        0 -1 139942 -1277804520 1549735196 -1291609253 1368775711
        -239031908 1557424330 -361580006 607360067</internalNodes>
      <leafValues>
        -3.6142688989639282e-01 1.9439308345317841e-01</leafValues></_>
    <_>
      <internalNodes>
        0 -1 110351 -1817249035 -1615983155 -1397784851 -1373442193
        -683773646 2047875844 -981984203 -325127170</internalNodes>
      <leafValues>
        -2.4263091385364532e-01 3.0540218949317932e-01</leafValues></_>
    <_>
      <internalNodes>
        0 -1 77901 -1786129747 1907559379 1612867635 1597218355 22990026
        -4744061 -389551958 -438857729</internalNodes>
      <leafValues>
        -2.2308680415153503e-01 3.3825397491455078e-01</leafValues></_>
    <_>
      <internalNodes>
        0 -1 163970 -252263171 290950800 473951226 812099263 -252908438
        -388268307 -1191800950 -72893637</internalNodes>
      <leafValues>
        -1.8420664966106415e-01 4.1393864154815674e-01</leafValues></_>
    <_>
      <internalNodes>
        0 -1 129397 -738208769 -715885602 -1879057541 1357908696
        -1326546546 -317027590 -136410226 -69727670</internalNodes>
      <leafValues>
        -1.9249519705772400e-01 3.9360061287879944e-01</leafValues></_>
    <_>
      <internalNodes>
        0 -1 139615 643582279 651690695 -1601086451 772576907 302207846
        992106711 2055356214 2146268794</internalNodes>
      <leafValues>
        -4.8463690280914307e-01 1.8845024704933167e-01</leafValues></_>
    <_>
      <internalNodes>
        0 -1 146327 742400032 1025310807 1631820249 -1858259943
        1111132601 -1675033390 199772317 -1725935360</internalNodes>
      <leafValues>
        -3.3406659960746765e-01 2.2283279895782471e-01</leafValues></_>
    <_>
      <internalNodes>
        0 -1 134277 -536062390 -373697749 1000142192 898126344
        -2143644885 1218594208 1252106387 136772351</internalNodes>
      <leafValues>
        -5.0146579742431641e-01 1.5689834952354431e-01</leafValues></_>
    <_>
      <internalNodes>
        0 -1 93001 -1073397649 1327042561 8426707 -91991991 -1131397053
        37978587 -1999984160 -42237223</internalNodes>
      <leafValues>
        -3.1557908654212952e-01 2.5114342570304871e-01</leafValues></_>
    <_>
      <internalNodes>
        0 -1 46645 -623549440 -1014788324 134681984 -79450210 335851992
        1701437457 74524093 818490396</internalNodes>
      <leafValues>
        -5.1943218708038330e-01 1.5756557881832123e-01</leafValues></_>
    <_>
      <internalNodes>
        0 -1 114610 -358323560 -656932646 100719169 1048760334
        -494339664 -1197821002 -1358953860 195778780</internalNodes>
      <leafValues>
        -4.0262123942375183e-01 2.1196335554122925e-01</leafValues></_>
    <_>
      <internalNodes>
        0 -1 5199 -285216789 -747442326 -269695292 775880174 1970792315
        1987493501 -1753756423 -773363977</internalNodes>
      <leafValues>
        -2.6201036572456360e-01 3.1991812586784363e-01</leafValues></_>
    <_>
      <internalNodes>
        0 -1 78839 5419794 1395544600 -1107977206 -1085040608 373531630
        1588633739 89498798 -933797365</internalNodes>
      <leafValues>
        -3.1042680144309998e-01 2.7331593632698059e-01</leafValues></_>
    <_>
      <internalNodes>
        0 -1 6544 679500989 1838820935 151060699 723360986 -641019234
        746731681 -1711173777 588211336</internalNodes>
      <leafValues>
        -3.9850622415542603e-01 2.1530155837535858e-01</leafValues></_>
    <_>
      <internalNodes>
        0 -1 131445 -52192533 -270338434 812497040 1216961716
        -1606469748 -1468315928 1275032319 -896604473</internalNodes>
      <leafValues>
        -2.7345207333564758e-01 3.2764434814453125e-01</leafValues></_>
    <_>
      <internalNodes>
        0 -1 92016 -1050809415 -2034667039 -674209093 214646877
        1045130043 -1960750462 -880669131 -1347473202</internalNodes>
      <leafValues>
        -3.2543101906776428e-01 2.7589255571365356e-01</leafValues></_>
    <_>
      <internalNodes>
        0 -1 96060 823020192 -1290622142 1536720915 1943147394
        1095434745 -2001616637 -536850198 937817732</internalNodes>
      <leafValues>
        -3.9194345474243164e-01 2.4923972785472870e-01</leafValues></_>
    <_>
      <internalNodes>
        0 -1 82083 -1644948224 -38004911 -1107812419 422073717
        -280483896 -201510915 -1563210545 -1465765217</internalNodes>
      <leafValues>
        -2.8506258130073547e-01 3.2814663648605347e-01</leafValues></_>
    <_>
      <internalNodes>
        0 -1 129817 -897267036 2110305659 285591007 -1385259998
        -1040051461 692216975 1242095725 2126119968</internalNodes>
      <leafValues>
        -4.1348326206207275e-01 2.3139184713363647e-01</leafValues></_></weakClassifiers></stage18>
</opencv_storage>
