<?xml version="1.0"?>
<opencv_storage>
<stage2>
  <maxWeakCount>12</maxWeakCount>
  <stageThreshold>-1.6620817184448242e+00</stageThreshold>
  <weakClassifiers>
    <_>
      <internalNodes>
        0 -1 22862 -179044527 -2139750633 -249700523 -783191715
        -256509519 -2137014337 -591265807 -2136359941</internalNodes>
      <leafValues>
        -6.9042772054672241e-01 3.2258063554763794e-02</leafValues></_>
    <_>
      <internalNodes>
        0 -1 66048 -93077325 -548542237 -720002445 -744284141
        -1835495749 -351690461 -1027628885 -821329910</internalNodes>
      <leafValues>
        -3.9409413933753967e-01 3.7299710512161255e-01</leafValues></_>
    <_>
      <internalNodes>
        0 -1 367 -632901966 -1143757294 1569939827 2147167955 -551275516
        -35979107 1115108179 2004301363</internalNodes>
      <leafValues>
        -5.4529005289077759e-01 2.3995986580848694e-01</leafValues></_>
    <_>
      <internalNodes>
        0 -1 124728 -1342230763 -1359029281 -42737665 -330384177
        -10535051 -352388933 -269502731 -587268164</internalNodes>
      <leafValues>
        -4.0583428740501404e-01 3.6122283339500427e-01</leafValues></_>
    <_>
      <internalNodes>
        0 -1 121428 -1896989892 -1896419346 -579545643 -53162614
        -109111451 -88697 -340005164 972863736</internalNodes>
      <leafValues>
        -6.0949271917343140e-01 2.1816299855709076e-01</leafValues></_>
    <_>
      <internalNodes>
        0 -1 158717 -407109653 -2136216085 -50434181 -461645850
        -537924097 -806000654 -705279824 -713556001</internalNodes>
      <leafValues>
        -2.9546606540679932e-01 4.7734105587005615e-01</leafValues></_>
    <_>
      <internalNodes>
        0 -1 157732 -209716161 -256217809 -589893 -2144146334 -301994261
        -554172417 -268436485 -1465716485</internalNodes>
      <leafValues>
        -3.0804443359375000e-01 4.4558170437812805e-01</leafValues></_>
    <_>
      <internalNodes>
        0 -1 83674 -2104559521 -120303531 -905143561 -124987189
        1741780791 -265207530 -499082419 -193653193</internalNodes>
      <leafValues>
        -4.1372114419937134e-01 3.2409372925758362e-01</leafValues></_>
    <_>
      <internalNodes>
        0 -1 128089 -599266032 20043347 -283588324 957720571 -105589576
        8427810 -1865397848 149421467</internalNodes>
      <leafValues>
        -4.7568178176879883e-01 2.7423149347305298e-01</leafValues></_>
    <_>
      <internalNodes>
        0 -1 67349 -650394487 292970162 -1560552805 1508998441
        -601036625 -177351177 -296304502 -1215049856</internalNodes>
      <leafValues>
        -3.3316335082054138e-01 4.0063250064849854e-01</leafValues></_>
    <_>
      <internalNodes>
        0 -1 117594 654256447 -1392585777 -15283841 650826187
        -1142216140 -540048721 -72389835 183039740</internalNodes>
      <leafValues>
        -6.4390748739242554e-01 2.3375062644481659e-01</leafValues></_>
    <_>
      <internalNodes>
        0 -1 74647 -1745379431 -1611128841 -1074128769 233801141
        -539095620 -1931807454 -223149773 -1614813793</internalNodes>
      <leafValues>
        -3.4467184543609619e-01 3.9589917659759521e-01</leafValues></_></weakClassifiers></stage2>
</opencv_storage>
