<?xml version="1.0"?>
<opencv_storage>
<stage14>
  <maxWeakCount>22</maxWeakCount>
  <stageThreshold>-1.4950168132781982e+00</stageThreshold>
  <weakClassifiers>
    <_>
      <internalNodes>
        0 -1 127920 -1079558281 -486599777 1051181905 -319979585
        -14713995 -75802485 -18350219 -2163720</internalNodes>
      <leafValues>
        -5.6901544332504272e-01 -7.4324324727058411e-02</leafValues></_>
    <_>
      <internalNodes>
        0 -1 99441 -650646049 -811537495 -988329697 -2089614299
        -2130866701 -1978630515 -2055268162 -819845918</internalNodes>
      <leafValues>
        -3.1737515330314636e-01 2.2944037616252899e-01</leafValues></_>
    <_>
      <internalNodes>
        0 -1 133828 1511415879 -293653777 -455707530 -1594983882
        1614168590 -226743025 -1229597388 1962473982</internalNodes>
      <leafValues>
        -4.4542643427848816e-01 1.7130088806152344e-01</leafValues></_>
    <_>
      <internalNodes>
        0 -1 118374 -1121395280 -59369224 -805359747 1563058429
        -1942047304 -54624259 -1632043015 -1347744359</internalNodes>
      <leafValues>
        -2.0593000948429108e-01 3.3204382658004761e-01</leafValues></_>
    <_>
      <internalNodes>
        0 -1 3725 -17058881 -454960137 -136331541 -8559456 1413701211
        -294388353 1714943959 -402663427</internalNodes>
      <leafValues>
        -1.9361665844917297e-01 3.7815514206886292e-01</leafValues></_>
    <_>
      <internalNodes>
        0 -1 151359 308348113 508953789 -1534965795 525151455
        -1154583180 -1160115188 1807822479 957108089</internalNodes>
      <leafValues>
        -3.7176650762557983e-01 2.1027149260044098e-01</leafValues></_>
    <_>
      <internalNodes>
        0 -1 56962 2082830864 -810379990 74799892 1557607385 -1826748818
        91653258 1684683077 -1136156993</internalNodes>
      <leafValues>
        -3.5916289687156677e-01 2.0638802647590637e-01</leafValues></_>
    <_>
      <internalNodes>
        0 -1 93741 604032508 -1692789328 84412286 -1089007102 2042889332
        698433905 444865484 1059795067</internalNodes>
      <leafValues>
        -4.3915483355522156e-01 1.7836928367614746e-01</leafValues></_>
    <_>
      <internalNodes>
        0 -1 158836 -545660047 -1518747789 2112874482 -793016333
        -1757949954 -860504365 -709683584 -724306266</internalNodes>
      <leafValues>
        -2.6280158758163452e-01 3.0982178449630737e-01</leafValues></_>
    <_>
      <internalNodes>
        0 -1 62378 -1318193681 -177183145 -1393150565 -537958541
        -1005783925 -861059467 -621013841 -139726966</internalNodes>
      <leafValues>
        -1.7337860167026520e-01 4.3831709027290344e-01</leafValues></_>
    <_>
      <internalNodes>
        0 -1 123431 1355872008 1429510925 52594617 320045349 -1574794258
        -1444923860 -1924691009 937972910</internalNodes>
      <leafValues>
        -3.7686499953269958e-01 2.1395701169967651e-01</leafValues></_>
    <_>
      <internalNodes>
        0 -1 95179 -1090560073 -890884693 -268496946 -1040218721
        1959195924 -2144153607 -8289 -2063747619</internalNodes>
      <leafValues>
        -2.7454200387001038e-01 3.0283778905868530e-01</leafValues></_>
    <_>
      <internalNodes>
        0 -1 27578 -1968560792 -536974248 2121787193 -1623421527
        1212220835 -27828363 -260628497 -1358482083</internalNodes>
      <leafValues>
        -2.7419108152389526e-01 2.9151374101638794e-01</leafValues></_>
    <_>
      <internalNodes>
        0 -1 165240 2030162570 1609139041 1965602779 -715845527
        -348915027 603488297 -745950737 358196990</internalNodes>
      <leafValues>
        -3.2120266556739807e-01 2.5512555241584778e-01</leafValues></_>
    <_>
      <internalNodes>
        0 -1 164271 -1288178113 -536892423 -2015529025 -717230115
        -117509563 -283775241 871601444 -772817488</internalNodes>
      <leafValues>
        -2.0627990365028381e-01 3.9375045895576477e-01</leafValues></_>
    <_>
      <internalNodes>
        0 -1 66866 -1441519970 953983708 1176790476 1792249787 701901342
        601227611 626344385 -135462289</internalNodes>
      <leafValues>
        -3.6860314011573792e-01 2.2987672686576843e-01</leafValues></_>
    <_>
      <internalNodes>
        0 -1 137595 11555008 769402672 -1722493089 692607440 -2116350788
        -88647467 -1697681734 714621208</internalNodes>
      <leafValues>
        -5.0571769475936890e-01 1.5023900568485260e-01</leafValues></_>
    <_>
      <internalNodes>
        0 -1 166054 1459878106 -740090208 1192567348 425692251 643865760
        -1878551039 1265889931 -749746101</internalNodes>
      <leafValues>
        -2.1616995334625244e-01 3.8222271203994751e-01</leafValues></_>
    <_>
      <internalNodes>
        0 -1 93192 -530387202 -1849964546 1610612734 -1255653838
        355497465 -1427898474 -546179398 -1867993</internalNodes>
      <leafValues>
        -2.4682612717151642e-01 3.2916983962059021e-01</leafValues></_>
    <_>
      <internalNodes>
        0 -1 71827 374745740 932297511 1065347660 11693663 449219470
        946002614 209109640 574275981</internalNodes>
      <leafValues>
        -4.6173614263534546e-01 1.7940579354763031e-01</leafValues></_>
    <_>
      <internalNodes>
        0 -1 63110 -426258731 -21643093 461381533 -132851416 -259085204
        -1574470621 -2110095137 -1304980406</internalNodes>
      <leafValues>
        -3.0962395668029785e-01 2.7400720119476318e-01</leafValues></_>
    <_>
      <internalNodes>
        0 -1 131409 2090658176 14709085 499767961 556637164 647158488
        145799928 -1712387400 142081323</internalNodes>
      <leafValues>
        -4.6028271317481995e-01 2.0034694671630859e-01</leafValues></_></weakClassifiers></stage14>
</opencv_storage>
