<?xml version="1.0"?>
<opencv_storage>
<stage1>
  <maxWeakCount>12</maxWeakCount>
  <stageThreshold>-1.8051462173461914e+00</stageThreshold>
  <weakClassifiers>
    <_>
      <internalNodes>
        0 -1 99249 -671095577 -543956029 -644881197 -809278878
        -1063792401 -1983656817 -1067990785 -956054334</internalNodes>
      <leafValues>
        -6.4798301458358765e-01 1.6802974045276642e-01</leafValues></_>
    <_>
      <internalNodes>
        0 -1 121301 -205520897 -68243457 754846207 -1365071105 319240319
        469763092 647114443 -1427120385</internalNodes>
      <leafValues>
        -4.0051919221878052e-01 4.2752584815025330e-01</leafValues></_>
    <_>
      <internalNodes>
        0 -1 51524 -643698400 1898993009 -1901984453 1366774291
        1275101600 -736088016 -935318869 29309579</internalNodes>
      <leafValues>
        -5.8337026834487915e-01 2.8252100944519043e-01</leafValues></_>
    <_>
      <internalNodes>
        0 -1 130007 -734003526 35268642 1318700166 157224538 -2132893458
        9381950 -1414800709 184265467</internalNodes>
      <leafValues>
        -5.4564678668975830e-01 2.6561370491981506e-01</leafValues></_>
    <_>
      <internalNodes>
        0 -1 92539 -321983964 -889674414 -32190604 -64948325 -30511104
        -891504096 -561516784 -353372497</internalNodes>
      <leafValues>
        -5.8773952722549438e-01 2.8354796767234802e-01</leafValues></_>
    <_>
      <internalNodes>
        0 -1 124378 1399290992 1967350551 424537070 1409275873
        1211231948 1295833677 78432428 74051311</internalNodes>
      <leafValues>
        -4.9535676836967468e-01 2.9833886027336121e-01</leafValues></_>
    <_>
      <internalNodes>
        0 -1 124656 -1362149505 -1363263492 -1073943075 2127493495
        -2147467 -19926601 -2097164 -67587</internalNodes>
      <leafValues>
        -4.0866637229919434e-01 3.9327988028526306e-01</leafValues></_>
    <_>
      <internalNodes>
        0 -1 63872 -706774031 194457323 -1677256687 490571309 256446648
        142639528 1035165009 -616871141</internalNodes>
      <leafValues>
        -4.1324514150619507e-01 3.6537161469459534e-01</leafValues></_>
    <_>
      <internalNodes>
        0 -1 82006 -221184796 -103336896 1141917041 1843347487
        -1833783894 -1147676600 539946110 758996602</internalNodes>
      <leafValues>
        -5.0734782218933105e-01 2.9429343342781067e-01</leafValues></_>
    <_>
      <internalNodes>
        0 -1 12166 -612401353 2113615611 -1095614852 -1163018357
        1733757556 -1074301131 1056144856 -160170665</internalNodes>
      <leafValues>
        -3.4784379601478577e-01 4.3857720494270325e-01</leafValues></_>
    <_>
      <internalNodes>
        0 -1 131232 -657467480 2109960123 1803812538 1367666704
        -2131865428 16515160 -389811477 143321854</internalNodes>
      <leafValues>
        -5.3152990341186523e-01 2.9149636626243591e-01</leafValues></_>
    <_>
      <internalNodes>
        0 -1 72 -875377041 -877544074 -822085633 -67678285 -269300481
        1878474743 1169511858 -339250911</internalNodes>
      <leafValues>
        -3.5699951648712158e-01 4.1280710697174072e-01</leafValues></_></weakClassifiers></stage1>
</opencv_storage>
