<?xml version="1.0"?>
<opencv_storage>
<stage13>
  <maxWeakCount>22</maxWeakCount>
  <stageThreshold>-1.6102257966995239e+00</stageThreshold>
  <weakClassifiers>
    <_>
      <internalNodes>
        0 -1 5432 -70254609 -157306625 -795879893 819653886 -546321553
        -128858057 -1903831377 -189279178</internalNodes>
      <leafValues>
        -5.1538002490997314e-01 -1.2706479756161571e-03</leafValues></_>
    <_>
      <internalNodes>
        0 -1 45314 -90947436 -665901819 588592083 -1040236213 -100081279
        -576093811 549179563 -813063605</internalNodes>
      <leafValues>
        -2.9633644223213196e-01 2.4516358971595764e-01</leafValues></_>
    <_>
      <internalNodes>
        0 -1 26747 2070409406 1026432014 1907971295 -1783685330
        1734201588 -8165992 934642682 -1113055076</internalNodes>
      <leafValues>
        -2.6702669262886047e-01 2.6984983682632446e-01</leafValues></_>
    <_>
      <internalNodes>
        0 -1 68442 893089553 800814119 -1540332963 -1344332271 360723764
        -1074135239 275264812 1069169086</internalNodes>
      <leafValues>
        -3.7582886219024658e-01 2.0926551520824432e-01</leafValues></_>
    <_>
      <internalNodes>
        0 -1 84211 -39329793 139964110 -1342882768 1106054317 -176808536
        77634976 -436262639 -36840709</internalNodes>
      <leafValues>
        -2.6016980409622192e-01 2.8442963957786560e-01</leafValues></_>
    <_>
      <internalNodes>
        0 -1 117798 -918039370 -1057686604 1244660942 632676493
        -1072108300 11594770 -1398636328 149650283</internalNodes>
      <leafValues>
        -4.1069108247756958e-01 1.8590895831584930e-01</leafValues></_>
    <_>
      <internalNodes>
        0 -1 17198 1236741649 -68006631 -1360073473 -547817347 73582583
        -1326252737 1138212033 -1713607488</internalNodes>
      <leafValues>
        -2.5118353962898254e-01 2.8766849637031555e-01</leafValues></_>
    <_>
      <internalNodes>
        0 -1 136401 242413510 303213710 746728196 295568238 1537755468
        2024819087 -745779268 1003703900</internalNodes>
      <leafValues>
        -4.5773553848266602e-01 1.8028506636619568e-01</leafValues></_>
    <_>
      <internalNodes>
        0 -1 95920 -687610949 1394454352 -4204557 -37359678 -1045609573
        -920939281 -722012947 -537930261</internalNodes>
      <leafValues>
        -1.6725812852382660e-01 4.7042858600616455e-01</leafValues></_>
    <_>
      <internalNodes>
        0 -1 25689 1436586092 -1763757538 404568331 1632218900
        -1283347821 2073699025 393945931 220168859</internalNodes>
      <leafValues>
        -3.6504846811294556e-01 2.0879025757312775e-01</leafValues></_>
    <_>
      <internalNodes>
        0 -1 116198 -680698214 130744392 -1069403489 904727407 317484660
        -81261516 -662122763 -537051531</internalNodes>
      <leafValues>
        -3.0887961387634277e-01 2.5822699069976807e-01</leafValues></_>
    <_>
      <internalNodes>
        0 -1 118429 -836090704 408847590 525644542 29941845 -1435007824
        -1969688398 1059617263 168303710</internalNodes>
      <leafValues>
        -4.2005920410156250e-01 1.8367376923561096e-01</leafValues></_>
    <_>
      <internalNodes>
        0 -1 158661 1053503313 236917085 151991807 444554651 -1410777264
        -4591111 -1115088300 -17897512</internalNodes>
      <leafValues>
        -3.0073240399360657e-01 2.9176580905914307e-01</leafValues></_>
    <_>
      <internalNodes>
        0 -1 62531 1547660548 354966576 1521270212 -1316825086
        1948152280 1068066087 464473880 704138488</internalNodes>
      <leafValues>
        -4.3175986409187317e-01 1.8629844486713409e-01</leafValues></_>
    <_>
      <internalNodes>
        0 -1 105556 -1081085966 -1351421635 -1674715486 -891399945
        -1349003456 -1939093117 -303045504 -706752128</internalNodes>
      <leafValues>
        -2.9470589756965637e-01 2.7682554721832275e-01</leafValues></_>
    <_>
      <internalNodes>
        0 -1 89165 136465664 -1151194384 -1471182154 -1082061294
        34875765 2114721041 975469528 1735082034</internalNodes>
      <leafValues>
        -5.1475733518600464e-01 1.5001450479030609e-01</leafValues></_>
    <_>
      <internalNodes>
        0 -1 69020 -253058342 -43974712 -268714060 -74 1036247519
        -806918402 -258620961 -338179233</internalNodes>
      <leafValues>
        -2.1867050230503082e-01 3.9930787682533264e-01</leafValues></_>
    <_>
      <internalNodes>
        0 -1 105754 -1186076703 -1366929400 1218299757 1187500535
        -2096377230 -1904055934 -2059561423 1281130997</internalNodes>
      <leafValues>
        -4.8556941747665405e-01 1.9790807366371155e-01</leafValues></_>
    <_>
      <internalNodes>
        0 -1 80784 811612289 385364427 454124028 -915376409 2005773035
        -13762838 1139620847 755551980</internalNodes>
      <leafValues>
        -4.3003329634666443e-01 1.9284868240356445e-01</leafValues></_>
    <_>
      <internalNodes>
        0 -1 9476 332245860 -340274214 872419295 313806791 -1247811150
        16968405 -2054992387 -1817192183</internalNodes>
      <leafValues>
        -3.3590686321258545e-01 2.5199359655380249e-01</leafValues></_>
    <_>
      <internalNodes>
        0 -1 134356 -152845952 433609043 -2080373732 -1197893326
        -850869752 1280609047 -951735606 134278227</internalNodes>
      <leafValues>
        -4.3775185942649841e-01 1.9359047710895538e-01</leafValues></_>
    <_>
      <internalNodes>
        0 -1 157160 -1079316611 -1351647490 -220173889 -1186894025
        -1085305483 -545951753 -537084940 -4477468</internalNodes>
      <leafValues>
        -2.3911775648593903e-01 3.8775977492332458e-01</leafValues></_></weakClassifiers></stage13>
</opencv_storage>
